{
    "mean": [
        14.069215456674474,
        19.309227166276344,
        91.53925058548008,
        647.4409836065573,
        0.09657447306791571,
        0.10340697892271664,
        0.0869015074941452,
        0.04834803044496487,
        0.18107892271662765,
        0.06266304449648712,
        0.3965629976580796,
        1.2110875878220138,
        2.8113733021077283,
        38.93864168618268,
        0.00702792037470726,
        0.024840798594847776,
        0.03080424262295082,
        0.011605135831381733,
        0.020475133489461356,
        0.0036588999999999997,
        16.170222482435598,
        25.679297423887586,
        106.53023419203748,
        865.8032786885246,
        0.1327423887587822,
        0.25132011709601876,
        0.26953371662763465,
        0.11392597423887588,
        0.2900901639344262,
        0.08360775175644031
    ],
    "std": [
        3.4296853858408185,
        4.368362263375869,
        23.655280488481406,
        339.02064548155874,
        0.014435336843346974,
        0.052803518968561704,
        0.07733124543956946,
        0.03820050883057403,
        0.02682739303597052,
        0.006840454030248317,
        0.264539496638745,
        0.567221817104296,
        1.949479393734136,
        40.98035115620244,
        0.003065530029812664,
        0.017342239524368242,
        0.025910404996539398,
        0.005924509611841339,
        0.00853967413933741,
        0.0021363402280042444,
        4.651935376711118,
        6.197297890672278,
        32.24772559474771,
        535.7714683198395,
        0.02269925382113298,
        0.15450763246568183,
        0.2050628991904217,
        0.06467722355152725,
        0.061435794986259715,
        0.018003480163287802
    ],
    "network": [
        {
            "name": "sigmoid",
            "shape": [
                30,
                10
            ],
            "weights": [
                [
                    0.4340899449892431,
                    -0.09524229487393923,
                    0.11741659676447747,
                    0.3302553843641897,
                    -0.2488546786297514,
                    -0.21355482334494533,
                    0.29754974960249453,
                    0.12004468516119327,
                    0.059579000121007995,
                    0.12985760336156893
                ],
                [
                    -0.03464730808628027,
                    0.28060240706989437,
                    0.032087469616649586,
                    0.3577063356858842,
                    -0.6328185645980721,
                    0.13199066335780946,
                    -0.010729424009837146,
                    0.1972509105269568,
                    0.16530713635468605,
                    -0.25094296590990106
                ],
                [
                    0.14559529596646706,
                    0.2448806611865326,
                    0.4337541617492084,
                    0.8154584683562188,
                    0.18595902953358176,
                    -0.5099523237096864,
                    0.02219679837394528,
                    0.368039438165714,
                    0.01784796775753428,
                    0.08640207035779439
                ],
                [
                    0.28605095724850904,
                    0.5340691989001336,
                    0.4813952785349894,
                    0.39293712650723517,
                    -0.5261713957319806,
                    0.2313445002851049,
                    -0.05304508497118353,
                    -0.37149708577243873,
                    -0.2799125435358912,
                    0.42792795046310295
                ],
                [
                    0.17091748665536663,
                    -0.02825466433118518,
                    0.5581588673107734,
                    -0.13668894487329653,
                    -0.061378566150567956,
                    0.18463924039506593,
                    -0.46828456414476816,
                    0.15806622519586358,
                    -0.09769991330272433,
                    -0.1860985543933678
                ],
                [
                    -0.7946322789442698,
                    -0.20458202607050127,
                    0.22453153215734994,
                    -0.08702010587944166,
                    0.24633609118690433,
                    0.41764328674230666,
                    0.5642385181915643,
                    0.38029935060382175,
                    -0.4828906102447864,
                    -0.3859459363523222
                ],
                [
                    -0.04329194073367898,
                    0.2261857226820308,
                    0.5837599001488791,
                    0.018718967759678982,
                    -0.2769999750176763,
                    -0.03897312784773262,
                    -0.4317224692795333,
                    0.044358202943893345,
                    0.42904928411890975,
                    0.5013882009607606
                ],
                [
                    0.4462141801306413,
                    0.4558499310013651,
                    1.5485958004756288,
                    -0.41563599118032873,
                    -0.7024253069520396,
                    -0.7813965755796939,
                    -1.108782006696801,
                    -0.47713096243836034,
                    0.666004855492732,
                    0.02160339909070285
                ],
                [
                    0.1845729554644262,
                    -0.16951446142882326,
                    0.37527814164801776,
                    0.20695157748176826,
                    0.2749627491928205,
                    0.0006500929443493914,
                    -0.0628170203369053,
                    -0.13970401817727715,
                    -0.21331545191809054,
                    -0.21079593583297518
                ],
                [
                    -0.18968099742981906,
                    -0.13974139577039213,
                    0.10003143656475498,
                    0.14834666160984128,
                    0.31500117844805525,
                    0.20833002716257012,
                    -0.042559624474692644,
                    0.13273487342406878,
                    0.037593609266138625,
                    -0.1583101483455022
                ],
                [
                    0.43899053294547125,
                    0.3772878092813036,
                    0.9397351249241631,
                    -0.4898530448294891,
                    -0.36823744550276805,
                    -0.7303553160158691,
                    -0.4266843123008946,
                    -0.24756639627972374,
                    0.15630832413469825,
                    -0.06260548888507912
                ],
                [
                    -0.12096927729227448,
                    -1.179946691601442,
                    0.3535924288527151,
                    0.902144834482055,
                    -0.35955393467434554,
                    0.6266651069363259,
                    -0.3150088867673254,
                    -0.03658322714123891,
                    -0.36009874835982797,
                    -0.8996127929796185
                ],
                [
                    -0.1897591778081437,
                    0.27970512809323356,
                    0.32044077298508544,
                    0.07820063661726968,
                    -0.18722080510283826,
                    0.2301227089401189,
                    -0.4056659739399994,
                    0.37345525193194395,
                    0.4059837177143702,
                    -0.30633055504032297
                ],
                [
                    0.7385410724118056,
                    0.43195921043734176,
                    1.6634166498799992,
                    -0.30109268866238653,
                    -0.30795353935986813,
                    -1.041204774916224,
                    -1.1797757660057284,
                    -0.5204171583171548,
                    0.7244092713073212,
                    -0.01822149609039726
                ],
                [
                    0.33556271846519864,
                    0.14064949385827508,
                    0.7571844287432069,
                    0.1331967105569827,
                    -0.27096880178926314,
                    -0.2500725246247746,
                    -1.1000809894257018,
                    -0.01391427289037915,
                    0.4029066370097519,
                    0.4882107926611154
                ],
                [
                    -0.7076090388302072,
                    -1.0242680649429203,
                    -0.4588425342340823,
                    0.12724956796230316,
                    0.5421902855259793,
                    0.20671827737791076,
                    0.622084954995601,
                    0.2671643153889625,
                    -0.3838336968070734,
                    -0.4539388906004573
                ],
                [
                    0.2517073327173255,
                    0.4405391081559313,
                    -0.0633084317474422,
                    0.3176773345378299,
                    -0.4730178268571536,
                    0.008106459724108745,
                    -0.38711417744118903,
                    -1.00897460464801,
                    0.6792624890326053,
                    -0.21259551851645242
                ],
                [
                    -0.028702998969362858,
                    0.22502221569619701,
                    0.498589382405406,
                    0.816062400939457,
                    0.22885894543557211,
                    -0.14012127833040663,
                    -0.5470727409053732,
                    -0.5045956086155332,
                    -0.11887913231537656,
                    0.007520694661985704
                ],
                [
                    -0.23724632875254292,
                    -0.30712639735510694,
                    -0.1789761445808872,
                    0.17845612836586727,
                    0.21627428939554158,
                    0.13901858409079626,
                    0.22929950127218957,
                    0.176977406068827,
                    -0.40537921510193553,
                    -0.21932103183073756
                ],
                [
                    -0.3561291042337192,
                    -0.40039457903226916,
                    -0.5588322316400315,
                    0.9357711906803732,
                    0.8076177806611192,
                    0.31296176162022044,
                    0.3776505621200075,
                    0.4804988315879543,
                    -0.4312321410887769,
                    -0.3747751308360225
                ],
                [
                    0.8407361295047288,
                    0.8146208436053181,
                    1.2155190476083813,
                    0.02404796192281363,
                    -1.0408136343883447,
                    -0.27251133737615874,
                    -0.1632372559650665,
                    -0.44841247366387577,
                    0.42450993381332236,
                    0.8734574045357774
                ],
                [
                    0.9711804448152117,
                    0.9811597688689631,
                    0.7064574887679317,
                    -0.9649186430399318,
                    -1.701452381038161,
                    -1.139526417968478,
                    -0.6018009134981447,
                    -0.4604119874902883,
                    0.6336229242114865,
                    1.092349098520938
                ],
                [
                    0.1657485957838061,
                    -0.22600062067122573,
                    0.2864205697156746,
                    0.5088700051777346,
                    -0.24665582557449975,
                    0.03936739253541861,
                    0.11419552125207616,
                    -0.31518357270571984,
                    0.025179969512413445,
                    0.19978971376582141
                ],
                [
                    1.1904471455585741,
                    0.8053425454181241,
                    1.4979381966587817,
                    -0.1192907666647261,
                    -0.6484305830477747,
                    -0.8381339030168522,
                    -0.6664004090604312,
                    -0.7019007827994763,
                    0.9392493943885131,
                    1.0979166808808682
                ],
                [
                    -0.047837882569519395,
                    0.44756025483657175,
                    0.5425572859338128,
                    -1.0271751913033724,
                    0.47407015219477977,
                    -0.1752080394887247,
                    -0.4465471844746109,
                    0.46702277769670153,
                    -0.07498076949251178,
                    0.5436407299718601
                ],
                [
                    0.1374844962427685,
                    -0.6366580955359642,
                    -0.1866825491077379,
                    0.3112854237668753,
                    0.44158942053660993,
                    0.03627126940392664,
                    -0.01937216042869771,
                    0.538750495415992,
                    -0.4319965726705334,
                    -0.08761151888635815
                ],
                [
                    0.7202120418455178,
                    0.21294471555423575,
                    0.4286007158619626,
                    -0.7382679071358471,
                    -0.371295256936417,
                    -0.6150037183953831,
                    -0.4777533473615944,
                    -0.6189816882308303,
                    0.7260053135966184,
                    0.9326274254353997
                ],
                [
                    0.23068007645738578,
                    -0.1148363176532167,
                    0.27744375501091123,
                    -0.7602675406443443,
                    -0.43655206856722156,
                    -0.07691555175722965,
                    -0.5488873013896451,
                    -0.4331144905560186,
                    0.31894552221530914,
                    0.14416944257717249
                ],
                [
                    0.7554137754092358,
                    0.1792165187184945,
                    0.21651526523121103,
                    -1.3442664507717585,
                    -0.17638664108591154,
                    -0.4991460669672414,
                    -0.18378571523708948,
                    -0.31125880922102844,
                    1.0074146491058602,
                    0.948828850087718
                ],
                [
                    0.16618318366119506,
                    -0.09988506641947029,
                    0.8891347179439267,
                    -0.11758898043941361,
                    -0.23408203420815088,
                    -0.19395892327795802,
                    -0.6486938192151559,
                    -0.20911507158357465,
                    0.18554470119080144,
                    0.27375657842602485
                ]
            ],
            "bias": [
                -0.22079149942002904,
                -0.39775422090980744,
                -0.6861694591248327,
                0.009164229571513144,
                -0.06778747129816481,
                0.17023982847490365,
                0.43452345277951876,
                -0.429607822317488,
                -0.07218400428815323,
                -0.32450070043256074
            ]
        },
        {
            "name": "sigmoid",
            "shape": [
                10,
                8
            ],
            "weights": [
                [
                    -1.5030104786116099,
                    -1.0194834287189047,
                    -0.8409375117905674,
                    1.013640470054237,
                    -0.9250843334308171,
                    -0.47092777131432706,
                    1.3979380102249426,
                    0.6485129140574317
                ],
                [
                    -0.9893493298281026,
                    -0.7329596092300188,
                    -1.5600215952382586,
                    1.1073236276991352,
                    -1.0166426777752733,
                    -0.7305468328001407,
                    0.9614208222971177,
                    1.0031831034111827
                ],
                [
                    -1.566651921423539,
                    -1.8607891157186371,
                    -1.3125661480471302,
                    1.5440397776688772,
                    -1.3067451573495303,
                    -1.7282011852710752,
                    1.4225217902586462,
                    1.2701105666763357
                ],
                [
                    0.6943320739359805,
                    0.5883472771453221,
                    0.9474473379295809,
                    -0.7627541303597661,
                    1.5239155438655807,
                    1.2311965777007987,
                    -1.1081636094090443,
                    -0.9844757815872976
                ],
                [
                    1.6925489765960229,
                    1.3276793965509541,
                    0.5681396590740359,
                    -0.7116097488806082,
                    1.2654374456393684,
                    1.0459653080546927,
                    -1.6144294946481799,
                    -0.7210610078020896
                ],
                [
                    0.8667123605534649,
                    1.670800757779589,
                    1.5029344446598694,
                    -1.2842567580234787,
                    1.0157898248521282,
                    1.1367705793676814,
                    -1.086773832763405,
                    -1.0458174012323171
                ],
                [
                    0.8340310597365959,
                    1.020793092158896,
                    0.9898432566795736,
                    -0.808386789844773,
                    0.949259423748185,
                    0.11076798469821021,
                    -1.3549683086231241,
                    -0.3754120990729886
                ],
                [
                    0.7212617276925949,
                    -0.004825771468068201,
                    0.8463347824155683,
                    -0.2524109049614246,
                    0.5948918866796733,
                    0.8115886492880946,
                    0.16283821393887463,
                    -0.7506672011800493
                ],
                [
                    -1.3282143488284472,
                    -1.067907679567208,
                    -1.033099139827896,
                    0.854115499218738,
                    -1.0736563865736855,
                    -0.3001981236428439,
                    1.5150618284378523,
                    0.5550707647283217
                ],
                [
                    -1.1185742139280244,
                    -1.5763329952513145,
                    -0.5943660238192,
                    1.0459158597993654,
                    -1.162015374719092,
                    -0.7446565035044301,
                    0.5242157691663047,
                    1.4638728045127434
                ]
            ],
            "bias": [
                0.468710302134813,
                0.26007663166341927,
                -0.26313923331418715,
                -0.31772175939344505,
                -0.18524953321903273,
                -0.43182314383054704,
                0.07177647906837585,
                -0.23264868794799534
            ]
        },
        {
            "name": "softmax",
            "shape": [
                8,
                2
            ],
            "weights": [
                [
                    0.7108051693373896,
                    -1.504542363478014
                ],
                [
                    0.3758782700745312,
                    -1.6823072932293277
                ],
                [
                    0.7272374519838569,
                    -0.8373286664575244
                ],
                [
                    -0.8863846764621452,
                    1.5056026881652025
                ],
                [
                    1.5670552999239804,
                    -1.3885215344091069
                ],
                [
                    0.6457019823638032,
                    -0.76897613378825
                ],
                [
                    -1.2468142640855913,
                    1.8053049160686665
                ],
                [
                    -1.0234405388915495,
                    1.4266153114704245
                ]
            ],
            "bias": [
                -0.3102609884638553,
                0.3189929383994388
            ]
        }
    ]
}